svm_type c_svc
nr_class 2
num_kernels 5
-t 2 -w 2.0776240257838721 -d 0 -j 0 -g 1 -r 0
-t 2 -w 2.1381046767408081 -d 0 -j 1 -g 1 -r 0
-t 2 -w 1.6464036592056877 -d 0 -j 2 -g 1 -r 0
-t 2 -w 1.3780609311892142 -d 0 -j 3 -g 1 -r 0
-t 2 -w 0.2728399992266563 -d 0 -j 4 -g 1 -r 0
features_per_kernel 3
num_features 13
total_sv 241
rho 0.056878810695156663
label 1 -1
nr_sv 112 129
SV
0.9533300050532888 0:0 1:0.708333 2:1 3:1 4:-0.320755 5:-0.105023 6:-1 7:1 8:-0.419847 9:-1 10:-0.225806 12:1 13:-1 
3.6315414721102908 0:2 1:0.166667 2:1 3:-0.333333 4:-0.433962 5:-0.383562 6:-1 7:-1 8:0.0687023 9:-1 10:-0.903226 11:-1 12:-1 13:1 
0.78224423911052965 0:6 1:0.125 2:1 3:0.333333 4:-0.320755 5:-0.406393 6:1 7:1 8:0.0839695 9:1 10:-0.806452 12:-0.333333 13:0.5 
0.57907488329228907 0:7 1:0.25 2:1 3:1 4:-0.698113 5:-0.484018 6:-1 7:1 8:0.0839695 9:1 10:-0.612903 12:-0.333333 13:1 
0.37760565271953195 0:8 1:0.291667 2:1 3:1 4:-0.132075 5:-0.237443 6:-1 7:1 8:0.51145 9:-1 10:-0.612903 12:0.333333 13:1 
0.89531806698665928 0:9 1:0.416667 2:-1 3:1 4:0.0566038 5:0.283105 6:-1 7:1 8:0.267176 9:-1 10:0.290323 12:1 13:1 
1.0688445166551608 0:13 1:0.333333 2:1 3:-1 4:-0.245283 5:-0.506849 6:-1 7:-1 8:0.129771 9:-1 10:-0.16129 12:0.333333 13:-1 
0.1147612353477475 0:16 1:-0.291667 2:1 3:1 4:-0.132075 5:-0.155251 6:-1 7:-1 8:-0.251908 9:1 10:-0.419355 12:0.333333 13:1 
0.871757333810528 0:17 2:1 3:1 4:-0.132075 5:-0.648402 6:1 7:1 8:0.282443 9:1 11:1 12:-1 13:1 
0.209731381176508 0:20 1:0.583333 2:1 3:1 4:-0.509434 5:-0.52968 6:-1 7:1 8:-0.114504 9:1 10:-0.16129 12:0.333333 13:1 
0.51540526174520229 0:28 1:0.208333 2:1 3:0.333333 4:-0.660377 5:-0.525114 6:-1 7:1 8:0.435115 9:-1 10:-0.193548 12:-0.333333 13:1 
1.4845654855781478 0:30 1:0.166667 2:1 3:0.333333 4:-0.358491 5:-0.52968 6:-1 7:1 8:0.206107 9:-1 10:-0.870968 12:-0.333333 13:1 
1.0033096127586059 0:33 1:0.25 2:1 3:1 4:0.433962 5:-0.086758 6:-1 7:1 8:0.0534351 9:1 10:0.0967742 11:1 12:-1 13:1 
0.79533543685016084 0:34 1:-0.125 2:1 3:1 4:-0.0566038 5:-0.6621 6:-1 7:1 8:-0.160305 9:1 10:-0.709677 12:-1 13:1 
0.90304769363023907 0:35 1:-0.208333 2:1 3:1 4:-0.320755 5:-0.406393 6:1 7:1 8:0.206107 9:1 10:-1 11:-1 12:0.333333 13:1 
0.52840093788279729 0:36 1:0.333333 2:1 3:1 4:-0.132075 5:-0.630137 6:-1 7:1 8:0.0229008 9:1 10:-0.387097 11:-1 12:-0.333333 13:1 
1.294925716933764 0:37 1:0.25 2:1 3:-1 4:0.245283 5:-0.328767 6:-1 7:1 8:-0.175573 9:-1 10:-1 11:-1 12:-1 13:-1 
1.6523254966298762 0:40 1:-0.541667 2:1 3:1 4:0.0943396 5:-0.557078 6:-1 7:-1 8:0.679389 9:-1 10:-1 11:-1 12:-1 13:1 
1.079129017437944 0:44 1:0.25 2:1 3:0.333333 4:-0.396226 5:-0.579909 6:1 7:-1 8:-0.0381679 9:-1 10:-0.290323 12:-0.333333 13:0.5 
0.99769481525175396 0:46 1:-0.166667 2:1 3:0.333333 4:-0.54717 5:-0.894977 6:-1 7:1 8:-0.160305 9:-1 10:-0.741935 11:-1 12:1 13:-1 
1.2264527391502231 0:47 1:-0.375 2:1 3:1 4:-0.698113 5:-0.675799 6:-1 7:1 8:0.618321 9:-1 10:-1 11:-1 12:-0.333333 13:-1 
1.0479577883363773 0:48 1:0.541667 2:1 3:-0.333333 4:0.245283 5:-0.452055 6:-1 7:-1 8:-0.251908 9:1 10:-1 12:1 13:0.5 
0.9023515851191164 0:49 1:0.5 2:-1 3:1 4:0.0566038 5:-0.547945 6:-1 7:1 8:-0.343511 9:-1 10:-0.677419 12:1 13:1 
0.45903967342035307 0:50 1:-0.458333 2:1 3:1 4:-0.207547 5:-0.136986 6:-1 7:-1 8:-0.175573 9:1 10:-0.419355 12:-1 13:0.5 
0.7282455364025987 0:56 1:0.333333 2:1 3:1 4:-0.169811 5:-0.817352 6:-1 7:1 8:-0.175573 9:1 10:0.16129 12:-0.333333 13:-1 
0.90945924505093445 0:58 1:0.25 2:-1 3:1 4:0.509434 5:-0.438356 6:-1 7:-1 8:0.0992366 9:1 10:-1 12:-1 13:-1 
0.94958483464953214 0:59 1:0.375 2:1 3:-0.333333 4:-0.509434 5:-0.292237 6:-1 7:1 8:-0.51145 9:-1 10:-0.548387 12:-0.333333 13:1 
0.98063370218368262 0:61 1:-0.0833333 2:-1 3:1 4:-0.320755 5:-0.182648 6:-1 7:-1 8:0.0839695 9:1 10:-0.612903 12:-1 13:1 
1.227067811811192 0:67 1:0.208333 2:-1 3:-0.333333 4:-0.207547 5:-0.118721 6:1 7:1 8:0.236641 9:-1 10:-1 11:-1 12:0.333333 13:-1 
7.0759565070918997 0:69 1:-0.25 2:1 3:0.333333 4:-0.735849 5:-0.465753 6:-1 7:-1 8:0.236641 9:-1 10:-1 11:-1 12:-1 13:-1 
0.18843289380932418 0:70 1:0.333333 2:1 3:1 4:-0.509434 5:-0.388128 6:-1 7:-1 8:0.0534351 9:1 10:0.16129 12:-0.333333 13:1 
0.89190045148505048 0:75 1:-0.333333 2:1 3:1 4:-0.0943396 5:-0.164384 6:-1 7:1 8:0.160305 9:1 10:-1 12:1 13:1 
0.84881431350858449 0:80 1:0.208333 2:1 3:1 4:-0.0188679 5:-0.579909 6:-1 7:-1 8:-0.480916 9:-1 10:-0.354839 12:-0.333333 13:1 
0.97978053118494557 0:81 1:-0.75 2:1 3:1 4:-0.509434 5:-0.671233 6:-1 7:-1 8:-0.0992366 9:1 10:-0.483871 12:-1 13:1 
3.638683311957438 0:82 1:0.208333 2:1 3:1 4:0.0566038 5:-0.342466 6:-1 7:1 8:-0.389313 9:1 10:-0.741935 11:-1 12:-1 13:1 
0.84905421445765794 0:89 1:-0.125 2:1 3:1 4:0.0566038 5:-0.465753 6:-1 7:1 8:-0.129771 9:-1 10:-0.16129 12:-1 13:1 
2.4368059424952708 0:91 1:0.333333 2:-1 3:1 4:-0.320755 5:-0.0684932 6:-1 7:1 8:0.496183 9:-1 10:-1 11:-1 12:-1 13:-1 
0.3168962915982369 0:93 1:0.0416667 2:1 3:1 4:-0.698113 5:-0.634703 6:-1 7:1 8:-0.435115 9:1 10:-1 12:-0.333333 13:-1 
0.67808299040799491 0:94 1:-0.0416667 2:1 3:1 4:-0.415094 5:-0.607306 6:-1 7:-1 8:0.480916 9:-1 10:-0.677419 11:-1 12:0.333333 13:1 
0.62405423197529197 0:95 1:-0.25 2:1 3:1 4:-0.698113 5:-0.319635 6:-1 7:1 8:-0.282443 9:1 10:-0.677419 12:-0.333333 13:-1 
1.2869415375761695 0:97 1:0.208333 2:1 3:1 4:-0.886792 5:-0.506849 6:-1 7:-1 8:0.29771 9:-1 10:-0.967742 11:-1 12:-0.333333 13:1 
1.0563122634379072 0:101 1:0.583333 2:1 3:1 4:-0.509434 5:-0.493151 6:-1 7:-1 8:-1 9:-1 10:-0.677419 12:-1 13:-1 
1.060377209312648 0:103 1:0.166667 2:1 3:1 4:0.339623 5:-0.255708 6:1 7:1 8:-0.19084 9:-1 10:-0.677419 12:1 13:1 
1.3454670245311204 0:105 1:-0.208333 2:1 3:1 4:-0.433962 5:-0.324201 6:-1 7:1 8:0.450382 9:-1 10:-0.83871 12:-1 13:1 
0.7321723642171738 0:107 1:0.291667 2:-1 3:1 4:0.0566038 5:-0.39726 6:-1 7:1 8:0.312977 9:-1 10:-0.16129 12:0.333333 13:1 
1.5940064021335048 0:108 1:0.25 2:1 3:1 4:-0.132075 5:-0.767123 6:-1 7:-1 8:0.389313 9:1 10:-1 11:-1 12:-0.333333 13:1 
1.0231654557801211 0:110 1:0.0833333 2:-1 3:1 4:0.622642 5:-0.0821918 6:-1 8:-0.29771 9:1 10:0.0967742 12:-1 13:-1 
1.7722962252358945 0:112 1:0.291667 2:-1 3:1 4:0.207547 5:-0.182648 6:-1 7:1 8:0.374046 9:-1 10:-1 11:-1 12:-1 13:-1 
0.74204869993501887 0:116 1:-0.291667 2:1 3:1 4:-0.509434 5:-0.438356 6:-1 7:1 8:0.114504 9:-1 10:-0.741935 11:-1 12:-1 13:1 
1.0565029836332678 0:117 1:0.125 2:-1 3:1 4:1 5:-0.260274 6:1 7:1 8:-0.0534351 9:1 10:0.290323 11:1 12:0.333333 13:1 
0.86515439901294089 0:119 1:0.125 2:1 3:1 4:-0.320755 5:-0.283105 6:1 7:1 8:-0.51145 9:1 10:-0.483871 11:1 12:-1 13:1 
1.8010387809149977 0:120 1:-0.166667 2:1 3:0.333333 4:-0.509434 5:-0.716895 6:-1 7:-1 8:0.0381679 9:-1 10:-0.354839 12:1 13:1 
0.38020129828894089 0:121 1:0.0416667 2:1 3:1 4:-0.471698 5:-0.269406 6:-1 7:1 8:-0.312977 9:1 10:0.0322581 12:0.333333 13:-1 
1.3238369280818048 0:122 1:0.166667 2:1 3:1 4:0.0943396 5:-0.324201 6:-1 7:-1 8:-0.740458 9:1 10:-0.612903 12:-0.333333 13:1 
1.0654184142639509 0:126 1:0.375 2:1 3:1 4:-0.509434 5:-0.356164 6:-1 7:-1 8:-0.572519 9:1 10:-0.419355 12:0.333333 13:1 
1.0571041602973772 0:129 1:0.291667 2:1 3:1 4:-0.566038 5:-0.525114 6:1 7:-1 8:0.358779 9:1 10:-0.548387 11:-1 12:0.333333 13:1 
1.0464746195798922 0:130 1:0.416667 2:-1 3:1 4:-0.735849 5:-0.347032 6:-1 7:-1 8:0.496183 9:1 10:-0.419355 12:0.333333 13:-1 
0.90295071465782351 0:131 1:0.541667 2:1 3:1 4:-0.660377 5:-0.607306 6:-1 7:1 8:-0.0687023 9:1 10:-0.967742 11:-1 12:-0.333333 13:-1 
0.85395091007977098 0:133 1:0.458333 2:1 3:1 4:-0.509434 5:-0.452055 6:-1 7:1 8:-0.618321 9:1 10:-0.290323 11:1 12:-0.333333 13:-1 
0.83129100601453065 0:137 1:0.125 2:1 3:1 4:-0.415094 5:-0.438356 6:1 7:1 8:0.114504 9:1 10:-0.612903 12:-0.333333 13:-1 
0.27681503565137666 0:140 1:0.458333 2:1 3:1 4:-0.0377358 5:-0.607306 6:-1 7:1 8:-0.0687023 9:-1 10:-0.354839 12:0.333333 13:0.5 
1.162215364121665 0:142 1:-0.125 2:1 3:0.333333 4:-0.132075 5:-0.511416 6:-1 7:-1 8:0.40458 9:-1 10:-0.806452 12:-0.333333 13:1 
1.0707590601234396 0:144 1:0.0416667 2:1 3:-0.333333 4:0.849057 5:-0.283105 6:-1 7:1 8:0.89313 9:-1 10:-1 11:-1 12:-0.333333 13:1 
1.4016360110418837 0:146 1:-0.0416667 2:1 3:1 4:-0.660377 5:-0.525114 6:-1 7:-1 8:0.358779 9:-1 10:-1 11:-1 12:-0.333333 13:-1 
0.89143522446722723 0:147 1:-0.541667 2:1 3:1 4:-0.698113 5:-0.812785 6:-1 7:1 8:-0.343511 9:1 10:-0.354839 12:-1 13:1 
0.82632111484875914 0:148 1:0.208333 2:1 3:0.333333 4:-0.283019 5:-0.552511 6:-1 7:1 8:0.557252 9:-1 10:0.0322581 11:-1 12:0.333333 13:1 
0.92181409416677274 0:156 1:0.0833333 2:1 3:1 4:-0.132075 5:-0.584475 6:-1 7:-1 8:-0.389313 9:1 10:0.806452 11:1 12:-1 13:1 
1.0568584147262694 0:159 1:0.541667 2:-1 3:1 4:0.584906 5:-0.534247 6:1 7:-1 8:0.435115 9:1 10:-0.677419 12:0.333333 13:1 
1.1343248855148387 0:160 1:-0.625 2:1 3:-1 4:-0.509434 5:-0.520548 6:-1 7:-1 8:0.694656 9:1 10:0.225806 12:-1 13:1 
0.61991391511021299 0:161 1:0.375 2:-1 3:1 4:0.0566038 5:-0.461187 6:-1 7:-1 8:0.267176 9:1 10:-0.548387 12:-1 13:-1 
1.3982706015809772 0:169 1:0.5 2:1 3:-1 4:-0.169811 5:-0.287671 6:1 7:1 8:0.572519 9:-1 10:-0.548387 12:-0.333333 13:-1 
0.77893764550303302 0:171 1:0.666667 2:1 3:0.333333 4:-0.132075 5:-0.415525 6:-1 7:1 8:0.145038 9:-1 10:-0.354839 12:1 13:1 
0.56811257615199495 0:172 1:0.583333 2:1 3:1 4:-0.886792 5:-0.210046 6:-1 7:1 8:-0.175573 9:1 10:-0.709677 12:0.333333 13:-1 
1.0569779994352047 0:175 1:0.375 2:-1 3:1 4:-0.169811 5:-0.232877 6:1 7:-1 8:-0.465649 9:-1 10:-0.387097 12:1 13:-1 
0.88109309056193807 0:176 1:-0.0833333 2:1 3:1 4:-0.132075 5:-0.214612 6:-1 7:-1 8:-0.221374 9:1 10:0.354839 12:1 13:1 
1.2605942888672061 0:177 1:-0.291667 2:1 3:0.333333 4:0.0566038 5:-0.520548 6:-1 7:-1 8:0.160305 9:-1 10:0.16129 12:-1 13:-1 
1.0480519448114012 0:178 1:0.583333 2:1 3:1 4:-0.415094 5:-0.415525 6:1 7:-1 8:0.40458 9:-1 10:-0.935484 12:0.333333 13:1 
1.015034427949594 0:181 1:0.125 2:-1 3:1 4:-0.245283 5:0.292237 6:-1 7:1 8:0.206107 9:1 10:-0.387097 12:0.333333 13:1 
0.65082598533908698 0:182 1:-0.5 2:1 3:1 4:-0.698113 5:-0.789954 6:-1 7:1 8:0.328244 9:-1 10:-1 11:-1 12:-1 13:1 
0.75044117896450391 0:189 1:0.708333 2:1 3:0.333333 4:0.245283 5:-0.347032 6:-1 7:-1 8:-0.374046 9:1 10:-0.0645161 12:-0.333333 13:1 
0.96088084227499904 0:191 1:0.708333 2:1 3:1 4:-0.0377358 5:-0.780822 6:-1 7:-1 8:-0.175573 9:1 10:-0.16129 11:1 12:-1 13:1 
1.3367225944246572 0:193 1:-0.75 2:1 3:1 4:-0.396226 5:-0.287671 6:-1 7:1 8:0.29771 9:1 10:-1 11:-1 12:-1 13:1 
0.9933241099976533 0:199 1:1 2:1 3:1 4:-0.415094 5:-0.187215 6:-1 7:1 8:0.389313 9:1 10:-1 11:-1 12:1 13:-1 
0.47154538718831213 0:201 1:0.208333 2:1 3:1 4:-0.415094 5:-0.205479 6:-1 7:1 8:0.526718 9:-1 10:-1 11:-1 12:0.333333 13:1 
1.5195707722610119 0:203 1:-0.0833333 2:1 3:1 4:-0.132075 5:-0.210046 6:-1 7:-1 8:0.557252 9:1 10:-0.483871 11:-1 12:-1 13:1 
0.44438172058190323 0:204 1:0.0833333 2:1 3:1 4:0.245283 5:-0.255708 6:-1 7:1 8:0.129771 9:1 10:-0.741935 12:-0.333333 13:1 
1.1350709473609637 0:208 1:0.458333 2:1 3:0.333333 4:-0.415094 5:-0.164384 6:-1 7:-1 8:-0.0839695 9:1 10:-0.419355 12:-1 13:1 
1.0897957048442406 0:210 1:0.25 2:1 3:-1 4:0.433962 5:-0.260274 6:-1 7:1 8:0.343511 9:-1 10:-0.935484 12:-1 13:1 
0.56469878818605845 0:213 1:0.208333 2:1 3:1 4:-0.358491 5:-0.589041 6:-1 7:1 8:-0.0839695 9:1 10:-0.290323 12:1 13:1 
0.87318458235675289 0:220 1:0.0416667 2:1 3:1 4:-0.698113 5:-0.484018 6:-1 7:-1 8:-0.160305 9:1 10:-0.0967742 12:-0.333333 13:1 
0.52992055533488469 0:221 1:0.5 2:1 3:1 4:-0.226415 5:-0.415525 6:-1 7:1 8:-0.145038 9:-1 10:-0.0967742 12:-0.333333 13:1 
0.9557733334277122 0:223 1:0.416667 2:1 3:1 4:-0.320755 5:-0.0684932 6:1 7:1 8:-0.0687023 9:1 10:-0.419355 11:-1 12:1 13:1 
1.2143440350396131 0:226 1:0.375 2:-1 3:0.333333 4:-0.320755 5:-0.374429 6:-1 7:-1 8:-0.603053 9:-1 10:-0.612903 12:-0.333333 13:1 
1.0566045440121243 0:227 1:-0.416667 2:-1 3:1 4:-0.283019 5:-0.0182648 6:1 7:1 8:-0.00763359 9:1 10:-0.0322581 12:-1 13:1 
1.1150357659174874 0:230 1:0.333333 2:-1 3:1 4:-0.0377358 5:-0.173516 6:-1 7:1 8:0.145038 9:1 10:-0.677419 12:-1 13:1 
1.3996613652515604 0:231 1:-0.583333 2:1 3:1 4:-0.54717 5:-0.575342 6:-1 7:-1 8:0.0534351 9:-1 10:-0.612903 12:-1 13:1 
0.87317186585347828 0:233 1:-0.0416667 2:1 3:1 4:-0.358491 5:-0.410959 6:-1 7:-1 8:0.374046 9:1 10:-1 11:-1 12:-0.333333 13:1 
1.0104040853141507 0:235 1:0.375 2:-1 3:1 4:0.245283 5:-0.826484 6:-1 7:1 8:0.129771 9:-1 10:1 11:1 12:1 13:1 
0.16719143701704886 0:237 1:-0.416667 2:1 3:1 4:-0.509434 5:-0.767123 6:-1 7:1 8:-0.251908 9:1 10:-0.193548 12:-1 13:1 
1.0143733335484562 0:240 1:0.625 2:1 3:0.333333 4:0.622642 5:-0.324201 6:1 7:1 8:0.206107 9:1 10:-0.483871 12:-1 13:1 
0.965884662725638 0:243 1:0.375 2:-1 3:1 4:-0.132075 5:-0.351598 6:-1 7:1 8:0.358779 9:-1 10:0.16129 11:1 12:0.333333 13:-1 
0.22488147981190024 0:245 1:0.291667 2:1 3:1 4:-0.320755 5:-0.420091 6:-1 7:-1 8:0.114504 9:1 10:-0.548387 11:-1 12:-0.333333 13:1 
0.514250170940455 0:246 1:0.5 2:1 3:1 4:-0.698113 5:-0.442922 6:-1 7:1 8:0.328244 9:-1 10:-0.806452 11:-1 12:0.333333 13:0.5 
1.1440804402163303 0:248 1:0.291667 2:1 3:0.333333 4:-0.132075 5:-0.730594 6:-1 7:1 8:0.282443 9:-1 10:-0.0322581 12:-1 13:-1 
0.22322122050798363 0:249 1:0.291667 2:1 3:1 4:-0.0377358 5:-0.287671 6:-1 7:1 8:0.0839695 9:1 10:-0.0967742 12:0.333333 13:1 
0.51295015401583477 0:250 1:0.0416667 2:1 3:1 4:-0.509434 5:-0.716895 6:-1 7:-1 8:-0.358779 9:-1 10:-0.548387 12:-0.333333 13:1 
0.83407517848378121 0:252 1:-0.375 2:1 3:1 4:-0.660377 5:-0.251142 6:-1 7:1 8:0.251908 9:-1 10:-1 11:-1 12:-0.333333 13:-1 
0.62303815562132048 0:257 1:0.0833333 2:1 3:1 4:-0.283019 5:0.0365297 6:-1 7:-1 8:-0.0687023 9:1 10:-0.612903 12:-0.333333 13:1 
1.3552287567400365 0:258 1:0.458333 2:1 3:0.333333 4:-0.132075 5:-0.0456621 6:-1 7:-1 8:0.328244 9:-1 10:-1 11:-1 12:-1 13:-1 
1.6098315240310264 0:262 1:0.208333 2:1 3:-0.333333 4:-0.509434 5:-0.278539 6:-1 7:1 8:0.358779 9:-1 10:-0.419355 12:-1 13:-1 
1.1189920399303939 0:264 1:-0.208333 2:1 3:-0.333333 4:-0.698113 5:-0.52968 6:-1 7:-1 8:0.480916 9:-1 10:-0.677419 11:1 12:-1 13:1 
0.89635367726743032 0:269 1:0.583333 2:1 3:1 4:0.245283 5:-0.269406 6:-1 7:1 8:-0.435115 9:1 10:-0.516129 12:1 13:-1 
-0.91858402927869953 0:1 1:0.583333 2:-1 3:0.333333 4:-0.603774 5:1 6:-1 7:1 8:0.358779 9:-1 10:-0.483871 12:-1 13:1 
-2.2987291153420459 0:3 1:0.458333 2:1 3:1 4:-0.358491 5:-0.374429 6:-1 7:-1 8:-0.480916 9:1 10:-0.935484 12:-0.333333 13:1 
-0.94228542416664285 0:4 1:0.875 2:-1 3:-0.333333 4:-0.509434 5:-0.347032 6:-1 7:1 8:-0.236641 9:1 10:-0.935484 11:-1 12:-0.333333 13:-1 
-0.8148799374431267 0:5 1:0.5 2:1 3:1 4:-0.509434 5:-0.767123 6:-1 7:-1 8:0.0534351 9:-1 10:-0.870968 11:-1 12:-1 13:1 
-0.63543486137799854 0:10 1:0.25 2:1 3:1 4:-0.226415 5:-0.506849 6:-1 7:-1 8:0.374046 9:-1 10:-0.83871 12:-1 13:1 
-4.0576236055043386 0:11 2:1 3:1 4:-0.0943396 5:-0.543379 6:-1 7:1 8:-0.389313 9:1 10:-1 11:-1 12:-1 13:1 
-1.4057151388185005 0:14 1:0.166667 2:-1 3:1 4:-0.358491 5:-0.191781 6:-1 7:1 8:0.343511 9:-1 10:-1 11:-1 12:-0.333333 13:-1 
-0.84257624416978272 0:15 1:0.75 2:-1 3:1 4:-0.660377 5:-0.894977 6:-1 7:-1 8:-0.175573 9:-1 10:-0.483871 12:-1 13:-1 
-0.88960265870116861 0:18 1:0.458333 2:1 3:-1 4:-0.698113 5:-0.611872 6:-1 7:1 8:0.114504 9:1 10:-0.419355 12:-1 13:-1 
-1.0041018859140551 0:19 1:-0.541667 2:1 3:-1 4:-0.132075 5:-0.666667 6:-1 7:-1 8:0.633588 9:1 10:-0.548387 11:-1 12:-1 13:1 
-0.97140132789613232 0:21 1:-0.208333 2:1 3:-0.333333 4:-0.320755 5:-0.456621 6:-1 7:1 8:0.664122 9:-1 10:-0.935484 12:-1 13:-1 
-0.92434854226715157 0:22 1:-0.416667 2:1 3:1 4:-0.603774 5:-0.191781 6:-1 7:-1 8:0.679389 9:-1 10:-0.612903 12:-1 13:-1 
-1.5147187316688742 0:23 1:-0.25 2:1 3:1 4:-0.660377 5:-0.643836 6:-1 7:-1 8:0.0992366 9:-1 10:-0.967742 11:-1 12:-1 13:-1 
-0.94363108275401053 0:24 1:0.0416667 2:-1 3:-0.333333 4:-0.283019 5:-0.260274 6:1 7:1 8:0.343511 9:1 10:-1 11:-1 12:-0.333333 13:-1 
-0.025602592751883702 0:25 1:-0.208333 2:-1 3:0.333333 4:-0.320755 5:-0.319635 6:-1 7:-1 8:0.0381679 9:-1 10:-0.935484 11:-1 12:-1 13:-1 
-0.96922192892314574 0:26 1:-0.291667 2:-1 3:1 4:-0.169811 5:-0.465753 6:-1 7:1 8:0.236641 9:1 10:-1 12:-1 13:-1 
-0.89841520840299838 0:29 1:0.75 2:-1 3:0.333333 4:-0.698113 5:-0.365297 6:1 7:1 8:-0.0992366 9:-1 10:-1 11:-1 12:-0.333333 13:-1 
-0.96473686455678398 0:31 1:0.541667 2:1 3:1 4:0.245283 5:-0.534247 6:-1 7:1 8:0.0229008 9:-1 10:-0.258065 11:-1 12:-1 13:0.5 
-0.26048408941429468 0:39 1:-0.208333 2:1 3:1 4:-0.471698 5:-0.561644 6:-1 7:1 8:0.755725 9:-1 10:-1 11:-1 12:-1 13:-1 
-0.4441465666435202 0:41 1:0.375 2:-1 3:1 4:-0.433962 5:-0.621005 6:-1 7:-1 8:0.40458 9:-1 10:-1 11:-1 12:-1 13:-1 
-0.75601729869448553 0:42 1:-0.375 2:1 3:0.333333 4:-0.320755 5:-0.511416 6:-1 7:-1 8:0.648855 9:1 10:-0.870968 11:-1 12:-1 13:-1 
-0.83355768626464666 0:43 1:-0.291667 2:1 3:-0.333333 4:-0.867925 5:-0.675799 6:1 7:-1 8:0.29771 9:-1 10:-1 11:-1 12:-1 13:1 
-0.68580912243789305 0:45 1:0.208333 2:1 3:0.333333 4:-0.132075 5:-0.611872 6:1 7:1 8:0.435115 9:-1 10:-1 11:-1 12:-1 13:-1 
-0.68381579538920878 0:51 1:-0.0416667 2:1 3:-0.333333 4:-0.358491 5:-0.639269 6:1 7:-1 8:0.725191 9:-1 10:-1 11:-1 12:-1 13:-1 
-0.96865434840157894 0:52 1:0.5 2:-1 3:0.333333 4:-0.132075 5:0.328767 6:1 7:1 8:0.312977 9:-1 10:-0.741935 11:-1 12:-0.333333 13:-1 
-0.50658896472509563 0:53 1:0.416667 2:-1 3:-0.333333 4:-0.132075 5:-0.684932 6:-1 7:-1 8:0.648855 9:-1 10:-1 11:-1 12:0.333333 13:-1 
-0.45177345831403032 0:54 1:-0.333333 2:-1 3:-0.333333 4:-0.320755 5:-0.506849 6:-1 7:1 8:0.587786 9:-1 10:-0.806452 12:-1 13:-1 
-0.43945105773469434 0:55 1:-0.5 2:-1 3:-0.333333 4:-0.792453 5:-0.671233 6:-1 7:-1 8:0.480916 9:-1 10:-1 11:-1 12:-0.333333 13:-1 
-0.90265611349568942 0:57 1:0.291667 2:-1 3:0.333333 4:-0.509434 5:-0.762557 6:1 7:-1 8:-0.618321 9:-1 10:-1 11:-1 12:-1 13:-1 
-0.6911256042245455 0:60 1:0.166667 2:1 3:0.333333 4:0.0566038 5:-1 6:1 7:-1 8:0.557252 9:-1 10:-0.935484 11:-1 12:-0.333333 13:1 
-3.0319409573321563 0:62 1:-0.375 2:1 3:0.333333 4:-0.509434 5:-0.543379 6:-1 7:-1 8:0.496183 9:-1 10:-1 11:-1 12:-1 13:-1 
-0.81937161537456671 0:63 1:0.291667 2:-1 3:-1 4:0.0566038 5:-0.479452 6:-1 7:-1 8:0.526718 9:-1 10:-0.709677 11:-1 12:-1 13:-1 
-0.970575425421208 0:64 1:0.416667 2:1 3:-1 4:-0.0377358 5:-0.511416 6:1 7:1 8:0.206107 9:-1 10:-0.258065 11:1 12:-1 13:0.5 
-1.0626137734669665 0:66 1:-0.0833333 2:1 3:1 4:-0.132075 5:-0.383562 6:-1 7:1 8:0.755725 9:1 10:-1 11:-1 12:-1 13:-1 
-0.46523548918300772 0:68 1:-0.375 2:-1 3:0.333333 4:-0.54717 5:-0.47032 6:-1 7:-1 8:0.19084 9:-1 10:-0.903226 12:-0.333333 13:-1 
-0.99787419011815881 0:71 1:0.166667 2:-1 3:1 4:-0.509434 5:0.0410959 6:-1 7:-1 8:0.40458 9:1 10:-0.806452 11:-1 12:-1 13:-1 
-1.2316326280713614 0:72 1:0.708333 2:1 3:-0.333333 4:0.169811 5:-0.456621 6:-1 7:1 8:0.0992366 9:-1 10:-1 11:-1 12:-1 13:-1 
-0.82463337521801194 0:73 1:0.958333 2:-1 3:0.333333 4:-0.132075 5:-0.675799 6:-1 8:-0.312977 9:-1 10:-0.645161 12:-1 13:-1 
-0.77561811794293556 0:74 1:0.583333 2:-1 3:1 4:-0.773585 5:-0.557078 6:-1 7:-1 8:0.0839695 9:-1 10:-0.903226 11:-1 12:0.333333 13:-1 
-1.336900743740796 0:76 1:-0.333333 2:1 3:1 4:-0.811321 5:-0.625571 6:-1 7:1 8:0.175573 9:1 10:-0.0322581 12:-1 13:-1 
-0.47839678606535041 0:77 1:-0.583333 2:-1 3:0.333333 4:-1 5:-0.666667 6:-1 7:-1 8:0.648855 9:-1 10:-1 11:-1 12:-1 13:-1 
-0.98853508461573214 0:83 1:-0.5 2:1 3:0.333333 4:-0.320755 5:-0.598174 6:-1 7:1 8:0.480916 9:-1 10:-0.354839 12:-1 13:-1 
-1.3439228734488307 0:84 1:0.166667 2:1 3:1 4:-0.698113 5:-0.657534 6:-1 7:-1 8:-0.160305 9:1 10:-0.516129 12:-1 13:0.5 
-0.92567176150792951 0:85 1:-0.458333 2:1 3:-1 4:0.0188679 5:-0.461187 6:-1 7:1 8:0.633588 9:-1 10:-0.741935 11:-1 12:0.333333 13:-1 
-0.74636202131709983 0:86 1:0.375 2:1 3:-0.333333 4:-0.358491 5:-0.625571 6:1 7:1 8:0.0534351 9:-1 10:-1 11:-1 12:-1 13:-1 
-0.96389080774220015 0:87 1:0.25 2:1 3:-1 4:0.584906 5:-0.342466 6:-1 7:1 8:0.129771 9:-1 10:0.354839 11:1 12:-1 13:1 
-0.34221837815358147 0:88 1:-0.5 2:-1 3:-0.333333 4:-0.396226 5:-0.178082 6:-1 7:-1 8:0.40458 9:-1 10:-1 11:-1 12:-1 13:-1 
-0.78680778212830726 0:90 1:0.25 2:1 3:-0.333333 4:-0.132075 5:-0.56621 6:-1 7:-1 8:0.419847 9:1 10:-1 11:-1 12:-1 13:-1 
-0.99306071402162255 0:96 1:0.541667 2:1 3:1 4:-0.509434 5:-0.196347 6:-1 7:1 8:0.221374 9:-1 10:-0.870968 12:-1 13:-1 
-0.79051971619755013 0:98 1:0.458333 2:-1 3:0.333333 4:-0.132075 5:-0.146119 6:-1 7:-1 8:-0.0534351 9:-1 10:-0.935484 11:-1 12:-1 13:1 
-0.35489525952914697 0:100 1:-0.375 2:-1 3:0.333333 4:-0.735849 5:-0.931507 6:-1 7:-1 8:0.587786 9:-1 10:-0.806452 12:-1 13:-1 
-0.27025125527732674 0:102 1:-0.166667 2:-1 3:1 4:-0.320755 5:-0.347032 6:-1 7:-1 8:0.40458 9:-1 10:-1 11:-1 12:-1 13:-1 
-0.80915328996472524 0:106 1:-0.0833333 2:1 3:0.333333 4:-0.886792 5:-0.561644 6:-1 7:-1 8:0.0992366 9:1 10:-0.612903 12:-1 13:-1 
-0.50573734492253863 0:109 1:-0.333333 2:-1 3:-0.333333 4:-0.660377 5:-0.844749 6:-1 7:-1 8:0.0229008 9:-1 10:-1 12:-1 13:-1 
-0.69139592594396304 0:111 1:-0.5 2:1 3:-0.333333 4:-0.698113 5:-0.502283 6:-1 7:-1 8:0.251908 9:-1 10:-1 11:-1 12:-1 13:-1 
-0.90243029950326337 0:113 1:0.0416667 2:-1 3:0.333333 4:-0.226415 5:-0.187215 6:1 7:-1 8:0.51145 9:-1 10:-1 11:-1 12:-1 13:-1 
-0.43865271501300435 0:115 1:-0.166667 2:-1 3:-0.333333 4:-0.245283 5:-0.3379 6:-1 7:-1 8:0.389313 9:-1 10:-1 12:-1 13:-1 
-0.94016488691573463 0:118 1:0.541667 2:-1 3:-1 4:0.0566038 5:-0.543379 6:-1 7:-1 8:-0.343511 9:-1 10:-0.16129 11:1 12:-1 13:-1 
-1.2071856249576187 0:123 1:0.5 2:-1 3:0.333333 4:0.245283 5:0.0684932 6:-1 7:1 8:0.221374 9:-1 10:-0.741935 11:-1 12:-1 13:-1 
-1.0097313266451629 0:124 1:0.0416667 2:1 3:0.333333 4:-0.415094 5:-0.328767 6:-1 7:1 8:0.236641 9:-1 10:-0.83871 11:1 12:-0.333333 13:-1 
-0.49074679578361208 0:125 1:0.0416667 2:-1 3:0.333333 4:0.245283 5:-0.657534 6:-1 7:-1 8:0.40458 9:-1 10:-1 11:-1 12:-0.333333 13:-1 
-0.30596014252827886 0:127 1:-0.0416667 2:-1 3:0.333333 4:-0.207547 5:-0.680365 6:-1 7:1 8:0.496183 9:-1 10:-0.967742 12:-1 13:-1 
-0.31516718631832474 0:128 1:-0.0416667 2:1 3:-0.333333 4:-0.245283 5:-0.657534 6:-1 7:-1 8:0.328244 9:-1 10:-0.741935 11:-1 12:-0.333333 13:-1 
-0.89643794923365172 0:134 1:0.0416667 2:1 3:0.333333 4:0.0566038 5:-0.515982 6:-1 7:1 8:0.435115 9:-1 10:-0.483871 11:-1 12:-1 13:1 
-0.89206107790302536 0:135 1:-0.291667 2:-1 3:0.333333 4:-0.0943396 5:-0.767123 6:-1 7:1 8:0.358779 9:1 10:-0.548387 11:1 12:-1 13:-1 
-0.18873690253150543 0:136 1:0.583333 2:-1 3:0.333333 4:0.0943396 5:-0.310502 6:-1 7:-1 8:0.541985 9:-1 10:-1 11:-1 12:-0.333333 13:-1 
-0.47960498360486015 0:138 1:-0.791667 2:-1 3:-0.333333 4:-0.54717 5:-0.616438 6:-1 7:-1 8:0.847328 9:-1 10:-0.774194 11:-1 12:-1 13:-1 
-2.5891822131399902 0:139 1:0.166667 2:1 3:1 4:-0.283019 5:-0.630137 6:-1 7:-1 8:0.480916 9:1 10:-1 11:-1 12:-1 13:1 
-0.38801398403707754 0:141 1:0.25 2:1 3:1 4:-0.169811 5:-0.3379 6:-1 7:1 8:0.694656 9:-1 10:-1 11:-1 12:-1 13:-1 
-0.89555798879237891 0:143 1:-0.0833333 2:1 3:-1 4:-0.415094 5:-0.60274 6:-1 7:1 8:-0.175573 9:1 10:-0.548387 11:-1 12:-0.333333 13:-1 
-0.89834944612615319 0:149 1:-0.5 2:-1 3:0.333333 4:-0.660377 5:-0.351598 6:-1 7:1 8:0.541985 9:1 10:-1 11:-1 12:-1 13:-1 
-1.57171297031955 0:150 1:-0.5 2:1 3:0.333333 4:-0.660377 5:-0.43379 6:-1 7:-1 8:0.648855 9:-1 10:-1 11:-1 12:-1 13:-1 
-0.33806358579400098 0:152 1:0.0416667 2:-1 3:0.333333 4:-0.735849 5:-0.356164 6:-1 7:1 8:0.465649 9:-1 10:-1 11:-1 12:-1 13:-1 
-0.90667186727019999 0:153 1:0.458333 2:-1 3:1 4:-0.320755 5:-0.191781 6:-1 7:-1 8:-0.221374 9:-1 10:-0.354839 12:0.333333 13:-1 
-0.44486222868939174 0:157 1:-0.333333 2:1 3:-0.333333 4:-0.358491 5:-0.16895 6:-1 7:1 8:0.51145 9:-1 10:-1 11:-1 12:-1 13:-1 
-0.91186675902916592 0:158 1:0.125 2:1 3:-1 4:-0.509434 5:-0.694064 6:-1 7:1 8:0.389313 9:-1 10:-0.387097 12:-1 13:1 
-1.3931673781073368 0:162 1:0.0833333 2:1 3:-0.333333 4:-0.320755 5:-0.378995 6:-1 7:-1 8:0.282443 9:-1 10:-1 11:-1 12:-1 13:-1 
-1.4264863781146728 0:164 1:-0.416667 2:1 3:1 4:-0.698113 5:-0.611872 6:-1 7:-1 8:0.374046 9:-1 10:-1 11:-1 12:-1 13:1 
-1.0985773891718786 0:165 1:0.458333 2:-1 3:1 4:0.622642 5:-0.0913242 6:-1 7:-1 8:0.267176 9:1 10:-1 11:-1 12:-1 13:-1 
-0.14399934069404843 0:166 1:-0.125 2:-1 3:1 4:-0.698113 5:-0.415525 6:-1 7:1 8:0.343511 9:-1 10:-1 11:-1 12:-1 13:-1 
-0.81162808025096678 0:167 2:1 3:0.333333 4:-0.320755 5:-0.675799 6:1 7:1 8:0.236641 9:-1 10:-0.612903 11:1 12:-1 13:-1 
-1.2223094006322097 0:170 1:0.666667 2:1 3:-1 4:0.245283 5:-0.506849 6:1 7:1 8:-0.0839695 9:-1 10:-0.967742 12:-0.333333 13:-1 
-0.6088918907420473 0:173 1:0.625 2:-1 3:0.333333 4:-0.509434 5:-0.611872 6:-1 7:1 8:-0.328244 9:-1 10:-0.516129 12:-1 13:-1 
-0.67797021232617916 0:174 1:-0.791667 2:1 3:-1 4:-0.54717 5:-0.744292 6:-1 7:1 8:0.572519 9:-1 10:-1 11:-1 12:-1 13:-1 
-0.95021835448867342 0:180 1:-0.458333 2:1 3:0.333333 4:-0.509434 5:-0.479452 6:1 7:-1 8:0.877863 9:-1 10:-0.741935 11:1 12:-1 13:1 
-0.64662445620335285 0:183 1:-0.458333 2:-1 3:1 4:-0.849057 5:-0.365297 6:-1 7:1 8:-0.221374 9:-1 10:-0.806452 12:-1 13:-1 
-0.94411094618609237 0:184 2:1 3:0.333333 4:-0.320755 5:-0.452055 6:1 7:1 8:0.557252 9:-1 10:-1 11:-1 12:1 13:-1 
-0.90118539497757355 0:185 1:-0.416667 2:1 3:0.333333 4:-0.320755 5:-0.136986 6:-1 7:-1 8:0.389313 9:-1 10:-0.387097 11:-1 12:-0.333333 13:-1 
-0.95398451140458829 0:187 1:-0.0416667 2:1 3:1 4:-0.735849 5:-0.511416 6:1 7:-1 8:0.160305 9:-1 10:-0.967742 11:-1 12:1 13:1 
-1.1177537614637525 0:188 1:0.375 2:-1 3:1 4:-0.132075 5:0.223744 6:-1 7:1 8:0.312977 9:-1 10:-0.612903 12:-1 13:-1 
-0.31523121966179396 0:190 1:0.0416667 2:1 3:1 4:-0.132075 5:-0.484018 6:-1 7:-1 8:0.358779 9:-1 10:-0.612903 11:-1 12:-1 13:-1 
-2.980116855371421 0:192 1:0.0416667 2:1 3:-0.333333 4:-0.735849 5:-0.164384 6:-1 7:-1 8:0.29771 9:-1 10:-1 11:-1 12:-1 13:1 
-0.85952787692003962 0:194 1:-0.208333 2:1 3:0.333333 4:-0.433962 5:-0.410959 6:1 7:-1 8:0.587786 9:-1 10:-1 11:-1 12:0.333333 13:-1 
-0.42830859286250056 0:196 1:0.208333 2:-1 3:1 4:-0.886792 5:-0.442922 6:-1 7:1 8:-0.221374 9:-1 10:-0.677419 12:-1 13:-1 
-0.31879231145794618 0:197 1:0.0416667 2:-1 3:0.333333 4:-0.698113 5:-0.598174 6:-1 7:-1 8:0.328244 9:-1 10:-0.483871 12:-1 13:-1 
-0.72513791188982035 0:198 1:0.666667 2:-1 3:-1 4:-0.132075 5:-0.484018 6:-1 7:-1 8:0.221374 9:-1 10:-0.419355 11:-1 12:0.333333 13:-1 
-1.4335181719412917 0:200 1:0.625 2:1 3:0.333333 4:-0.54717 5:-0.310502 6:-1 7:-1 8:0.221374 9:-1 10:-0.677419 11:-1 12:-0.333333 13:1 
-0.92855328350331268 0:205 1:-0.0416667 2:1 3:-1 4:0.0943396 5:-0.214612 6:1 7:-1 8:0.633588 9:-1 10:-0.612903 12:-1 13:1 
-0.48676700668225925 0:206 1:0.291667 2:-1 3:0.333333 4:-0.849057 5:-0.123288 6:-1 7:-1 8:0.358779 9:-1 10:-1 11:-1 12:-0.333333 13:-1 
-1.1471077013477005 0:207 1:0.208333 2:1 3:0.333333 4:-0.792453 5:-0.479452 6:-1 7:1 8:0.267176 9:1 10:-0.806452 12:-1 13:1 
-1.0401043810668658 0:209 1:-0.666667 2:1 3:0.333333 4:-0.320755 5:-0.43379 6:-1 7:-1 8:0.770992 9:-1 10:0.129032 11:1 12:-1 13:-1 
-0.74703424667466123 0:211 1:-0.0833333 2:1 3:0.333333 4:-0.415094 5:-0.456621 6:1 7:1 8:0.450382 9:-1 10:-0.225806 12:-1 13:-1 
-0.57658965550386976 0:214 1:-1 2:1 3:-0.333333 4:-0.320755 5:-0.643836 6:-1 7:1 8:1 9:-1 10:-1 11:-1 12:-1 13:-1 
-0.69775017294333319 0:215 1:-0.5 2:-1 3:-0.333333 4:-0.320755 5:-0.643836 6:-1 7:1 8:0.541985 9:-1 10:-0.548387 11:-1 12:-1 13:-1 
-0.60679268027035782 0:216 1:0.416667 2:-1 3:0.333333 4:-0.226415 5:-0.424658 6:-1 7:1 8:0.541985 9:-1 10:-1 11:-1 12:-1 13:-1 
-1.0059818935030538 0:217 1:-0.0833333 2:1 3:0.333333 4:-1 5:-0.538813 6:-1 7:-1 8:0.267176 9:1 10:-1 11:-1 12:-0.333333 13:1 
-2.2177977651877638 0:218 1:0.0416667 2:1 3:0.333333 4:-0.509434 5:-0.39726 6:-1 7:1 8:0.160305 9:-1 10:-0.870968 12:-1 13:1 
-0.52539153515433312 0:222 1:0.166667 2:1 3:0.333333 4:0.0566038 5:-0.808219 6:-1 7:-1 8:0.572519 9:-1 10:-0.483871 11:-1 12:-1 13:-1 
-0.77911547294896466 0:224 1:-0.75 2:-1 3:1 4:-0.169811 5:-0.739726 6:-1 7:-1 8:0.694656 9:-1 10:-0.548387 11:-1 12:-1 13:-1 
-1.1526295649105303 0:225 1:-0.5 2:1 3:-0.333333 4:-0.226415 5:-0.648402 6:-1 7:-1 8:-0.0687023 9:-1 10:-1 12:-1 13:0.5 
-0.96594134180516311 0:228 1:0.208333 2:-1 3:-1 4:0.0566038 5:-0.283105 6:1 7:1 8:0.389313 9:-1 10:-0.677419 11:-1 12:-1 13:-1 
-0.53242021830982955 0:229 1:-0.0416667 2:1 3:-1 4:-0.54717 5:-0.726027 6:-1 7:1 8:0.816794 9:-1 10:-1 12:-1 13:0.5 
-1.5257317332108988 0:232 1:-0.333333 2:1 3:1 4:-0.603774 5:-0.388128 6:-1 7:1 8:0.740458 9:-1 10:-1 11:-1 12:-1 13:-1 
-1.8243222645031933 0:234 1:0.375 2:1 3:0.333333 4:-0.320755 5:-0.520548 6:-1 7:-1 8:0.145038 9:-1 10:-0.419355 12:1 13:1 
-1.9119280101103799 0:236 2:-1 3:1 4:-0.169811 5:-0.506849 6:-1 7:1 8:0.358779 9:-1 10:-1 11:-1 12:-1 13:-1 
-0.16609344657491024 0:238 1:-0.25 2:1 3:0.333333 4:-0.169811 5:-0.401826 6:-1 7:1 8:0.29771 9:-1 10:-1 11:-1 12:-1 13:-1 
-0.30553742027230552 0:241 1:-0.583333 2:1 3:0.333333 4:-0.132075 5:-0.109589 6:-1 7:1 8:0.694656 9:-1 10:-1 11:-1 12:-1 13:-1 
-0.32055175787349105 0:244 1:-0.0833333 2:-1 3:0.333333 4:-0.132075 5:-0.16895 6:-1 7:1 8:0.0839695 9:-1 10:-0.516129 11:-1 12:-0.333333 13:-1 
-0.33845486876922276 0:247 1:0.5 2:-1 3:0.333333 4:0.150943 5:-0.347032 6:-1 7:-1 8:0.175573 9:-1 10:-0.741935 11:-1 12:-1 13:-1 
-2.8795301228147259 0:253 1:-0.0833333 2:1 3:0.333333 4:-0.698113 5:-0.776256 6:-1 7:-1 8:-0.206107 9:-1 10:-0.806452 11:-1 12:-1 13:-1 
-0.7135927070105158 0:254 1:0.25 2:1 3:0.333333 4:0.0566038 5:-0.607306 6:1 7:-1 8:0.312977 9:-1 10:-0.483871 11:-1 12:-1 13:-1 
-0.56853130399546359 0:255 1:0.75 2:-1 3:-0.333333 4:0.245283 5:-0.196347 6:-1 7:-1 8:0.389313 9:-1 10:-0.870968 11:-1 12:0.333333 13:-1 
-0.94494527831830366 0:256 1:0.333333 2:1 3:0.333333 4:0.0566038 5:-0.465753 6:1 7:-1 8:0.00763359 9:1 10:-0.677419 12:-1 13:-1 
-0.53310667287577029 0:259 1:-0.416667 2:1 3:1 4:0.0566038 5:-0.447489 6:-1 7:-1 8:0.526718 9:-1 10:-0.516129 11:-1 12:-1 13:-1 
-0.20037348055113979 0:260 1:0.208333 2:-1 3:0.333333 4:-0.509434 5:-0.0228311 6:-1 7:-1 8:0.541985 9:-1 10:-1 11:-1 12:-1 13:-1 
-0.63567385714153246 0:265 1:-0.0416667 2:1 3:0.333333 4:0.471698 5:-0.666667 6:1 7:-1 8:0.389313 9:-1 10:-0.83871 11:-1 12:-1 13:1 
-0.19855043389930221 0:266 1:-0.375 2:1 3:-0.333333 4:-0.509434 5:-0.374429 6:-1 7:-1 8:0.557252 9:-1 10:-1 11:-1 12:-1 13:1 
-0.48866175438009318 0:267 1:0.125 2:-1 3:-0.333333 4:-0.132075 5:-0.232877 6:-1 7:1 8:0.251908 9:-1 10:-0.580645 12:-1 13:-1 
-0.92602233996469019 0:268 1:0.166667 2:1 3:1 4:-0.132075 5:-0.69863 6:-1 7:-1 8:0.175573 9:-1 10:-0.870968 12:-1 13:0.5 
